svm_type c_svc
kernel_type rbf
gamma 0.5
nr_class 6
total_sv 158
rho 2.2369 -0.489635 0.552071 0.0846659 0.581628 -0.940206 -0.347629 -1.05903 -0.0764872 0.484702 -0.0850028 0.509304 -0.335352 0.19866 0.814296
label 1 2 3 5 6 7
nr_sv 52 58 17 11 8 12
SV
1.744804899094571 0 0 0 0 1:-0.134323 2:-0.124812 3:1 4:-0.495327 5:-0.296429 6:-0.980676 7:-0.3829 8:-1 9:-1 
5 0 0 0 0 1:-0.432839 2:-0.0496238 3:0.603564 4:-0.333333 5:0.0428581 6:-0.845411 7:-0.553903 8:-1 9:-1 
5 5 0 0 0.9263738382076923 1:-0.55838 2:-0.157895 3:0.581292 4:-0.221184 5:0.135713 6:-0.874396 7:-0.563197 8:-1 9:-1 
5 5 0 0 0 1:-0.428443 2:-0.254135 3:0.643653 4:-0.376947 6:-0.816425 7:-0.481413 8:-1 9:-1 
5 0 0 0 0 1:-0.449511 2:-0.23609 3:0.612472 4:-0.4081 5:0.167857 6:-0.822866 7:-0.509294 8:-1 9:-1 
5 0 0 0 0 1:-0.577701 2:-0.380451 3:0.608018 4:-0.17134 5:0.128572 6:-0.793881 7:-0.509294 8:-1 9:0.0196078 
2.452611858298038 0 0 0 0 1:-0.448643 2:-0.227067 3:0.603564 4:-0.470405 5:0.171427 6:-0.813205 7:-0.490706 8:-1 9:-1 
5 0 0 0 0 1:-0.294989 2:-0.00451109 3:0.594655 4:-0.327103 5:-0.189285 6:-0.819646 7:-0.466543 8:-1 9:-1 
5 0 0 0 0 1:-0.438103 2:-0.317293 3:0.603564 4:-0.333333 5:0.135713 6:-0.816425 7:-0.447955 8:-1 9:-0.568627 
5 0 0 0 0 1:-0.599648 2:-0.401504 3:0.541203 4:-0.208723 5:0.210713 6:-0.784219 7:-0.505576 8:-1 9:-0.0588235 
5 0 0 0 0 1:-0.43108 2:-0.377443 3:0.63029 4:-0.389408 5:0.142858 6:-0.806763 7:-0.418216 8:-1 9:-1 
5 0 0 0 0 1:-0.583844 2:-0.353383 3:0.52784 4:-0.308411 5:0.239285 6:-0.777778 7:-0.513011 8:-1 9:-0.0588235 
5 0 0 0 0 1:-0.444247 2:-0.359398 3:0.585746 4:-0.389408 5:0.214285 6:-0.826087 7:-0.451673 8:-1 9:-0.333333 
5 0 0 0 0 1:-0.43108 2:-0.434586 3:0.599109 4:-0.364486 5:0.242857 6:-0.813205 7:-0.429368 8:-1 9:-1 
0 5 0 0 0 1:-0.301143 2:-0.0466165 3:0.66147 4:-0.445483 5:-0.174999 6:-0.980676 7:-0.356877 8:-1 9:-1 
5 5 0 0 0 1:-0.455665 2:-0.311278 3:0.576837 4:-0.127726 5:0.0428581 6:-0.826087 7:-0.440521 8:-1 9:-0.72549 
5 5 0 0 0 1:-0.442488 2:-0.371428 3:0.581292 4:-0.252336 5:0.0499997 6:-0.826087 7:-0.42565 8:-1 9:-0.254902 
0 5 0 0 0 1:-0.252852 2:0.215038 3:0.670379 4:-1 5:-0.210715 6:-0.990338 7:-0.336431 8:-1 9:-1 
5 5 0 0 0 1:-0.454786 2:-0.383459 3:0.612472 4:-0.376947 5:0.0642858 6:-0.809984 7:-0.392193 8:-1 9:-1 
5 0 0 0 0 1:-0.441609 2:-0.374436 3:0.5902 4:-0.339564 5:0.146427 6:-0.800322 7:-0.412639 8:-1 9:-1 
5 5 0 0 0 1:-0.468832 2:-0.203007 3:0.55902 4:-0.464174 5:0.0857134 6:-0.838969 7:-0.442379 8:-1 9:-1 
5 0 0 0 0 1:-0.404737 2:-0.254135 3:0.550111 4:-0.302181 5:0.0107138 6:-0.809984 7:-0.442379 8:-1 9:-1 
5 5 0 0 0 1:-0.467953 2:-0.356391 3:0.550111 4:-0.352025 5:0.153571 6:-0.819646 7:-0.442379 8:-1 9:-1 
5 0 0 0 0 1:-0.426685 2:-0.449624 3:0.567929 4:-0.28972 5:0.192857 6:-0.816425 7:-0.421933 8:-1 9:-1 
5 0 0 0 0 1:-0.412639 2:-0.293233 3:0.554566 4:-0.383178 5:0.0892856 6:-0.806763 7:-0.431227 8:-1 9:-1 
5 0 0 0 0 1:-0.426685 2:-0.422556 3:0.585746 4:-0.370717 5:0.167857 6:-0.803543 7:-0.394052 8:-1 9:-0.45098 
5 0 0 0 0 1:-0.420541 2:-0.362406 3:0.550111 4:-0.41433 5:0.128572 6:-0.803543 7:-0.418216 8:-0.942857 9:-0.137255 
5 0 0 0 0 1:-0.439861 2:-0.446616 3:0.545657 4:-0.320872 5:0.278571 6:-0.806763 7:-0.420074 8:-1 9:-0.764706 
5 0 0 0 0 1:-0.413518 2:-0.410526 3:0.576837 4:-0.345794 5:0.121427 6:-0.816425 7:-0.3829 8:-1 9:-1 
5 5 0 0 0 1:-0.603165 2:-0.230075 3:0.536748 4:-0.426791 5:0.0464275 6:-0.819646 7:-0.416357 8:-1 9:-1 
5 5 0 0 0 1:-0.302891 2:-0.0496238 3:0.572383 4:-0.358255 5:-0.285715 6:-0.835749 7:-0.377323 8:-0.930159 9:-1 
5 0 0 0 0 1:-0.401231 2:-0.395489 3:0.550111 4:-0.339564 5:0.124999 6:-0.793881 7:-0.395911 8:-1 9:-1 
0 1.06222186811891 0 0 0 1:-0.438103 2:-0.404511 3:0.523385 4:-0.433022 5:0.210713 6:-0.809984 7:-0.403346 8:-1 9:-1 
5 0 0 0 0 1:-0.417035 2:-0.254135 3:0.510022 4:-0.352025 5:0.0535719 6:-0.809984 7:-0.412639 8:-1 9:-1 
5 1.141654797412609 0 0 0 1:-0.410881 2:-0.398496 3:0.52784 4:-0.439252 5:0.121427 6:-0.800322 7:-0.381041 8:-1 9:0.176471 
5 5 0 0 0 1:-0.310793 2:-0.169925 3:0.550111 4:-0.339564 5:-0.235715 6:-0.822866 7:-0.336431 8:-1 9:-1 
5 0 0 0 0 1:-0.338015 2:-0.26015 3:0.501114 4:-0.445483 5:0.0392859 6:-0.816425 7:-0.36803 8:-1 9:-0.372549 
3.332529895303725 0 0.3857986530749616 0.8737392318441488 1.584033848833638 1:0.3626 2:-0.0195487 3:0.648107 4:-0.738318 5:-0.371428 6:-0.993559 7:-0.184015 8:-1 9:-0.607843 
2.883423971911994 5 0 0 0 1:-0.312551 2:-0.142857 3:0.492205 4:-0.41433 5:-0.189285 6:-0.809984 7:-0.35316 8:-1 9:-1 
2.912464526972488 5 0 0 0 1:0.0579511 2:-0.100752 3:0.657016 4:-0.862928 5:-0.307143 6:-0.971014 7:-0.139405 8:-1 9:-0.372549 
5 2.9666897502394 0 0 0 1:-0.287966 2:-0.257143 3:0.483296 4:-0.383178 5:-0.0892856 6:-0.806763 7:-0.310409 8:-1 9:-0.568627 
0 2.497247069709589 0 5 0 1:-0.391571 2:-0.18797 3:0.278396 4:-0.439252 5:0.0821412 6:-0.822866 7:-0.330855 8:-1 9:-1 
0.5114882579555653 0 4.689744682093904 4.750394027689341 4.699863558973385 1:-0.366106 2:-0.275188 3:0.265033 4:-0.383178 5:0.0857134 6:-0.822866 7:-0.32342 8:-1 9:-1 
5 0.1894754720669526 0 0.798541967334879 0 1:-0.417914 2:-0.254135 3:0.25167 4:-0.376947 5:0.132144 6:-0.835749 7:-0.332714 8:-1 9:-0.647059 
5 0 1.539260724362536 0 0.8020389225008233 1:-0.425816 2:-0.482707 3:0.207127 4:-0.376947 5:0.389284 6:-0.819646 7:-0.325279 8:-1 9:-0.0588235 
5 3.784339430375166 0 0 0.1169013262823283 1:-0.912199 2:-0.320301 3:0.545657 4:-0.482866 5:0.132144 6:-0.800322 7:-0.457249 8:-1 9:0.215686 
5 0 0 0 0 1:-0.377525 2:-0.356391 3:0.550111 4:-0.376947 5:0.121427 6:-0.806763 7:-0.442379 8:-1 9:-1 
5 0 0 0 0 1:-0.438982 2:-0.172932 3:0.665924 4:-0.451713 5:0.135713 6:-0.809984 7:-0.516729 8:-1 9:-1 
5 0.6795585732061493 0 0 0 1:-0.438982 2:-0.2 3:0.63029 4:-0.439252 5:0.0642858 6:-0.816425 7:-0.472119 8:-1 9:-0.568627 
5 0.6119114406417294 0 0.5044173890581322 3.293862764740279 1:-0.243192 2:-0.0736839 3:0.594655 4:-0.358255 5:-0.317857 6:-0.961353 7:-0.39777 8:-0.561905 9:-1 
0 0 0 0.1620921506525582 0 1:-0.0237059 2:0.0345867 3:0.697105 4:-0.694704 5:-0.45 6:-1 7:-0.208179 8:-1 9:-1 
0 0.9212113946982283 0 0 0 1:-0.0895485 2:-0.302255 3:0.625835 4:-0.638629 5:-0.139285 6:-0.938808 7:-0.178439 8:-1 9:-0.333333 
-0 1.915741307303003 0 0.2941821776880568 0 1:-0.597011 2:0.242105 3:0.634744 4:-0.0965732 5:-0.264285 6:-0.94847 7:-0.641264 8:-1 9:-0.529412 
-0 5 0 0 0 1:-0.356457 2:-0.124812 3:0.723831 4:-0.389408 5:-0.232143 6:-0.826087 7:-0.462825 8:-1 9:0.254902 
-5 0 0 0 0 1:-0.582965 2:-0.311278 3:0.594655 4:-0.239875 5:0.182143 6:-0.777778 7:-0.52974 8:-1 9:-1 
-5 0 0 0 0 1:-0.550478 2:-0.317293 3:0.594655 4:-0.221184 5:0.0785718 6:-0.803543 7:-0.51487 8:-1 9:-1 
-5 4.697692830208291 0 0 0 1:-0.562776 2:-0.0406013 3:0.567929 4:-0.401869 5:0.0964273 6:-0.880837 7:-0.533457 8:-1 9:-0.45098 
-5 0 0 0 0 1:-0.580328 2:-0.242105 3:0.536748 4:-0.28972 5:0.199999 6:-0.803543 7:-0.548327 8:-1 9:-1 
-5 5 0 0 0 1:-0.533806 2:-0.193985 3:0.581292 4:-0.401869 5:0.0714274 6:-0.780998 7:-0.503717 8:-1 9:-1 
-0 0 0 1.90379014165517 5 1:-0.741883 2:0.0586468 3:0.376392 4:0.115265 5:-0.117858 6:-0.645733 7:-0.693309 8:-1 9:-1 
-5 5 0 0 0 1:-0.552237 2:-0.209022 3:0.594655 4:-0.252336 5:0.0392859 6:-0.855072 7:-0.483271 8:-1 9:-1 
-5 0 0 0 0 1:-0.601407 2:-0.245113 3:0.554566 4:-0.264797 5:0.228571 6:-0.877617 7:-0.516729 8:-1 9:-1 
-5 0 0 0 0 1:-0.534674 2:-0.196992 3:0.554566 4:-0.233645 5:0.014286 6:-0.784219 7:-0.507435 8:-1 9:-0.607843 
-5 0 0 0 0 1:-0.55838 2:-0.314285 3:0.55902 4:-0.258567 5:0.0999995 6:-0.806763 7:-0.5 8:-1 9:-1 
-5 3.084530460800655 0 0 0 1:-0.3626 2:-0.338346 3:0.665924 4:-0.489097 5:-0.117858 6:-0.793881 7:-0.343866 8:-1 9:-0.137255 
-5 3.221275570194554 0 0 0 1:-0.569799 2:-0.347368 3:0.532294 4:-0.277259 5:0.160713 6:-0.858293 7:-0.472119 8:-1 9:-1 
-5 0 0 0 0 1:-0.584724 2:-0.281203 3:0.518931 4:-0.196262 5:0.232143 6:-0.977456 7:-0.449814 8:-1 9:-0.254902 
-5 5 0 1.502944015676239 0 1:-0.582965 2:-0.245113 3:0.487751 4:-0.264797 5:0.174999 6:-0.874396 7:-0.481413 8:-1 9:-1 
-5 0 0 0 0 1:-0.54873 2:-0.404511 3:0.483296 4:-0.252336 5:0.239285 6:-0.784219 7:-0.477695 8:-1 9:-1 
-5 5 0 0 0 1:-0.345917 2:-0.209022 3:0.52784 4:-0.28972 5:-0.124999 6:-0.835749 7:-0.410781 8:-1 9:-1 
-5 5 0 0 0 1:-0.3626 2:-0.311278 3:0.612472 4:-0.520249 5:-0.09643 6:-0.793881 7:-0.312268 8:-1 9:-0.411765 
-5 0 0 0 0 1:-0.448643 2:-0.557895 3:0.447662 4:-0.457944 5:0.335715 6:-0.800322 7:-0.355019 8:-1 9:-0.0588235 
-0 0 0.1946555146070604 0 0.3247333327624022 1:-0.496044 2:-0.416541 3:0.282851 4:-0.115265 5:0.214285 6:-0.764895 7:-0.421933 8:-1 9:-1 
-5 4.446602557661021 0 5 2.55630048383741 1:-0.388933 2:-0.329323 3:0.318486 4:-0.28972 5:0.110713 6:-0.806763 7:-0.375465 8:-0.911111 9:-1 
-5 0 0 0 0 1:-0.525904 2:-0.392481 3:0.269488 4:-0.283489 5:0.235713 6:-0.816425 7:-0.375465 8:-0.930159 9:-0.137255 
-5 0.2849997560726778 5 0 0 1:-0.460051 2:-0.512782 3:0.211581 4:-0.165109 5:0.0928578 6:-0.774557 7:-0.29368 8:-1 9:-1 
-5 1.760867593317109 0 0 0 1:-0.381031 2:-0.431579 3:0.229399 4:-0.663551 5:0.42857 6:-0.887279 7:-0.258364 8:-1 9:-0.215686 
-3.971612329913424 1.394983017092813 0 0 0 1:0.413529 2:-0.0766915 3:0.403118 4:-0.76947 5:-0.728571 6:-0.974235 7:0.154275 8:-1 9:-1 
-5 5 0 1.697534320851164 3.988057343582838 1:0.13696 2:-0.067669 3:0.29176 4:-0.451713 5:-0.521428 6:-0.974235 7:-0.00371751 8:-1 9:-1 
-0 0 3.896107266432304 0 0.1208008512415428 1:0.194032 2:-0.783459 3:-1 4:-0.00934579 5:-0.149999 6:-0.73913 7:0.451673 8:-1 9:0.333333 
-0 0 0.4837980234056254 0 0.9204526025912979 1:0.76471 2:-1 3:-1 4:0.127726 5:-1 6:-0.813205 7:0.462825 8:1 9:0.0980392 
-0 0 0 0 0.3823801487386872 1:1 2:-0.527819 3:-1 4:-0.557632 5:-0.874998 6:-0.961353 7:1 8:-1 9:-0.0588235 
-0 0 3.877866613163104 2.729111820763027 0 1:-0.0280912 2:0.112782 3:-1 4:-0.557632 5:0.0214277 6:-0.967794 7:0.13197 8:-1 9:-0.686275 
-0 0.1592446374196398 1.52555908176463 5 1.657367140099809 1:-0.382789 2:-0.100752 3:-1 4:-0.831776 5:0.657141 6:-1 7:0.0334572 8:-1 9:-1 
-0 0 3.029877097308383 0 0 1:0.359973 2:-0.849624 3:-1 4:-0.700935 5:0.214285 6:-1 7:0.719331 8:-1 9:-1 
-5 0 0 0 0 1:-0.317826 2:-0.178947 3:0.706013 4:-0.395639 5:-0.0214277 6:-0.816425 7:-0.483271 8:-1 9:-0.45098 
-5 5 0 0 0 1:-0.357325 2:-0.287218 3:0.768374 4:-0.439252 5:-0.0607136 6:-0.806763 7:-0.442379 8:-1 9:-1 
-5 4.443561895786673 0 0 0 1:-0.358204 2:-0.193985 3:0.73274 4:-0.352025 5:-0.082144 6:-0.835749 7:-0.47026 8:-1 9:-1 
-5 0 0 0 0 1:-0.373129 2:-0.245113 3:0.737194 4:-0.302181 5:-0.0999995 6:-0.822866 7:-0.464684 8:-1 9:-0.607843 
-5 0.9925504443280633 0 0 0 1:-0.528531 2:-0.148872 3:0.5902 4:-0.264797 5:-0.0571441 6:-0.793881 7:-0.52974 8:-1 9:-1 
-5 5 0 0 0 1:-0.359963 2:-0.242105 3:0.674833 4:-0.358255 5:-0.0749996 6:-0.813205 7:-0.444238 8:-1 9:-1 
-2.699498655411793 0 0 0 0 1:-0.51887 2:-0.338346 3:0.576837 4:-0.17134 5:0.124999 6:-0.793881 7:-0.516729 8:-1 9:-0.176471 
-5 0 0 0 0 1:-0.497802 2:-0.24812 3:0.576837 4:-0.258567 5:0.0821412 6:-0.819646 7:-0.503717 8:-1 9:-1 
-5 0 0 0 0.746674236556391 1:-0.0676009 2:-0.257143 3:0.639198 4:-0.464174 5:0.0499997 6:-0.826087 7:-0.42565 8:-1 9:-1 
-5 0 0 0 0 1:-0.335378 2:-0.338346 3:0.63029 4:-0.208723 5:-0.0357137 6:-0.813205 7:-0.420074 8:-1 9:-0.529412 
-5 5 0 0 0 1:-0.515364 2:-0.335338 3:0.608018 4:-0.395639 5:0.0499997 6:-0.819646 7:-0.410781 8:-1 9:-1 
-2.26622795128297 1.670796713643766 0 0 0 1:-0.151885 2:-0.0827067 3:0.0155902 4:-0.28972 5:-0.221429 6:-0.84219 7:-0.178439 8:-1 9:-0.333333 
-0 0 0.4539366214140115 0 2.040285033403464 1:-0.163304 2:-0.151879 3:-0.0690423 4:-0.140187 5:-0.153571 6:-0.829308 7:-0.230483 8:-0.828571 9:-0.333333 
-0 0 2.855599155828441 1.511132478157728 0 1:-0.20544 2:-0.0225563 3:-0.398664 4:-0.165109 5:-0.303571 6:-0.874396 7:-0.0464684 8:-1 9:-0.294118 
-0 0 5 5 1.945384671646159 1:-0.0676009 2:-0.0917291 3:-0.550111 4:-0.333333 5:-0.149999 6:-0.89372 7:0.0613383 8:-1 9:-1 
-0 0 1.605392454853571 0 0 1:0.316068 2:-0.106767 3:-1 4:-0.333333 5:-0.489286 6:-0.938808 7:0.488847 8:-1 9:-0.607843 
-5 5 0 0 0 1:-0.387185 2:-0.18797 3:0.772829 4:-0.445483 5:-0.0428581 6:-0.813205 7:-0.494424 8:-1 9:-1 
-5 0 0 0 0 1:-0.388933 2:-0.218045 3:0.714922 4:-0.401869 5:0.0607136 6:-0.832528 7:-0.5 8:-1 9:-1 
-5 0 0 0 0 1:-0.393329 2:-0.317293 3:0.69265 4:-0.507788 5:0.164285 6:-0.819646 7:-0.451673 8:-1 9:-0.529412 
-5 0 0 0 0 1:-0.476734 2:-0.350376 3:0.612472 4:-0.202492 5:0.124999 6:-0.803543 7:-0.501859 8:-1 9:-1 
-5 0 0 0 0 1:-0.509221 2:-0.380451 3:0.567929 4:-0.221184 5:0.267857 6:-0.78744 7:-0.540892 8:-1 9:-1 
-5 0 0 0 0 1:-0.353819 2:-0.257143 3:0.616927 4:-0.514019 5:0.0785718 6:-0.816425 7:-0.446097 8:-0.942857 9:-0.333333 
-5 0 0 0 0 1:-0.51975 2:-0.362406 3:0.563474 4:-0.283489 5:0.142858 6:-0.780998 7:-0.479554 8:-0.961905 9:-0.0196078 
-5 0 0 0 0 1:-0.521508 2:-0.320301 3:0.416481 4:-0.41433 5:0.128572 6:-0.813205 7:-0.371747 8:-1 9:-0.0588235 
-4.899984472928194 0 0.5769402525037094 0 0 1:-0.364348 2:-0.362406 3:0.634744 4:-0.4081 5:-0.014286 6:-0.800322 7:-0.395911 8:-1 9:0.372549 
-5 -5 0 0 0 1:-0.425816 2:-0.121804 3:0.63029 4:-0.489097 5:0.0571414 6:-0.964573 7:-0.410781 8:-1 9:-1 
-5 -5 0 0 0 1:-0.565403 2:-0.218045 3:0.572383 4:-0.345794 5:0.0214277 6:-0.819646 7:-0.460967 8:-1 9:-1 
-5 -5 0 0 0 1:-0.512727 2:-0.245113 3:0.5902 4:-0.320872 5:0.0321415 6:-0.819646 7:-0.440521 8:-1 9:-0.607843 
-5 -5 0.934626059634974 0 0 1:-0.536433 2:-0.569925 3:0.567929 4:-0.339564 5:0.0999995 6:-0.816425 7:-0.423792 8:-1 9:-1 
-5 -5 0.3692042037029846 0 0 1:-0.517123 2:-0.275188 3:0.536748 4:-0.0841122 5:-0.0464275 6:-0.806763 7:-0.451673 8:-1 9:-0.333333 
-5 -5 0 0 0 1:-0.111496 2:0.0796994 3:0.737194 4:-0.663551 5:-0.396428 6:-1 7:-0.245353 8:-1 9:-1 
-5 -5 0 1.668933660651837 0 1:-0.417035 2:-0.124812 3:0.625835 4:-0.775701 5:0.139285 6:-0.980676 7:-0.349442 8:-1 9:-1 
-5 -5 0 0 0 1:-0.565403 2:-0.190977 3:0.514477 4:-0.420561 5:0.0285721 6:-0.809984 7:-0.462825 8:-1 9:-1 
-5 -5 0 0 0 1:-0.491658 2:-0.359398 3:0.594655 4:-0.364486 6:-0.803543 7:-0.375465 8:-1 9:-1 
-5 -5 0 0.3476234861036632 0.6227440626220957 1:-0.533806 2:-0.305263 3:0.514477 4:-0.395639 5:0.142858 6:-0.832528 7:-0.414498 8:-1 9:-1 
-5 -5 0 0.208449197879829 0 1:-0.525904 2:-0.193985 3:0.510022 4:-0.383178 5:0.0107138 6:-0.832528 7:-0.401487 8:-1 9:-1 
-5 -3.072846783828266 0 0.2575684551782827 1.688724933458378 1:-0.116771 2:-0.00751868 3:0.674833 4:-0.819315 5:-0.292857 6:-0.964573 7:-0.215613 8:-1 9:-1 
-5 -5 0 0 1.037284132248237 1:-0.419662 2:-0.157895 3:0.518931 4:-0.233645 5:-0.203571 6:-0.813205 7:-0.375465 8:-1 9:-1 
-5 -5 0 0 0 1:-0.40211 2:-0.166917 3:0.496659 4:-0.165109 5:-0.239285 6:-0.816425 7:-0.371747 8:-1 9:-0.647059 
-5 -5 2.588733684568294 5 5 1:-0.370502 2:-0.218045 3:0.487751 4:-0.221184 5:-0.167857 6:-0.819646 7:-0.33829 8:-1 9:-1 
-5 -5 0 0.2450223041094257 0 1:-0.280943 2:-0.124812 3:0.576837 4:-0.713396 5:0.014286 6:-0.94847 7:-0.356877 8:-0.904762 9:-0.0588235 
-3.854309796468735 -5 1.275736568583257 0.5260474188130402 1.2335054154902 1:-0.0377514 2:0.0406016 3:0.683742 4:-0.613707 5:-0.446428 6:-0.925926 7:-0.310409 8:-1 9:0.45098 
-0.3936728154967837 -1.362673062807019 -0.5669744983487831 0.714052045640433 2.126906844615693 1:-0.649687 2:-0.0135336 3:0.193764 4:1 5:-0.971428 6:-0.458937 7:-0.918216 8:0.396825 9:-1 
-4.844770498088675 -5 -3.308365061575061 5 4.547545986743081 1:-0.297626 2:-0.398496 3:-0.175946 4:-0.0218068 5:0.0285721 6:-0.806763 7:-0.133829 8:-1 9:-1 
-0.2445206976553459 -3.71585527607576 -0 0 0 1:-0.0728654 2:-0.750376 3:-0.162583 4:-0.208723 5:0.0892856 6:-0.848631 7:0.111524 8:-1 9:-1 
-0 -0 -0 0 5 1:-0.516243 2:-0.359398 3:-1 4:-0.0404984 5:0.45357 6:-0.687601 7:-0.118959 8:-1 9:-1 
-0 -0 -0 4.143029014820019 0 1:-0.228267 2:-0.23609 3:-1 4:-0.0841122 5:0.149999 6:-0.848631 7:0.0947954 8:-1 9:-1 
-0 -5 -0 0 0 1:0.100967 2:-0.184962 3:-1 4:-0.196262 5:-0.139285 6:-0.89694 7:0.265799 8:-1 9:-1 
-0.3177535880640553 -1.184333613174729 -0.3938452900058581 0.4843366085635816 0 1:-0.82353 2:-0.311278 3:-1 4:0.713396 5:-0.760712 6:1 7:-0.715613 8:-1 9:-1 
-0 -0 -0 0 1.144855090599768 1:-0.819134 2:-0.317293 3:-1 4:0.700935 5:-0.682143 6:1 7:-0.72119 8:-1 9:-1 
-0 -5 -0 2.125473374441874 0 1:-0.185251 2:-0.203007 3:-1 4:-0.308411 5:-0.128572 6:-0.89372 7:0.314126 8:-1 9:-1 
-0.8140864602265425 -2.236870129223331 -0.8991156665598079 0.5187601963979243 1.123257813267395 1:-0.172074 2:-0.362406 3:-0.282851 4:0.17134 5:-0.153571 6:-0.755233 7:-0.20632 8:-0.847619 9:1 
-0 -5 -0 0.192735739605992 0.2715388372689222 1:-0.118519 2:-0.326316 3:-0.853007 4:-0.239875 5:0.278571 6:-0.958132 7:0.0855019 8:-1 9:0.0980392 
-5 -5 -3.299661291542724 -2.559407917321509 5 1:-0.306407 2:-0.0165412 3:0.0645881 4:-0.208723 5:-0.0857134 6:-1 7:-0.230483 8:-1 9:-1 
-5 -5 -4.299090018466548 -0.9897160695605354 1.498908926178065 1:-0.278316 2:-0.0796991 3:0.0734968 4:-0.439252 5:0.0535719 6:-1 7:-0.193308 8:-1 9:-1 
-0 -0 -0 -0 2.656055353633011 1:-0.373129 2:0.121805 3:-0.00222712 4:-0.17134 5:-0.082144 6:-1 7:-0.288104 8:-1 9:-1 
-0.6533133508644986 -3.348229028315141 -0 -1.851527358406759 0 1:-0.35294 2:0.0105266 3:-0.0244988 4:-0.146417 5:0.0214277 6:-1 7:-0.276952 8:-1 9:-1 
-1.000578526341622 -0.6197602639876014 -0 -0 2.057493256835583 1:-0.838455 2:0.103759 3:-0.224944 4:-0.221184 5:0.692857 6:-1 7:-0.598513 8:-1 9:-1 
-0 -4.043352681505434 -0 -5 4.040831228355241 1:-0.296747 2:0.0285715 3:-1 4:0.121495 5:0.0464275 6:-1 7:0.0130111 8:-1 9:-1 
-0 -5 -0 -2.29339902561744 0 1:-0.250215 2:0.15188 3:-1 4:-0.831776 5:0.310715 6:-1 7:0.0762082 8:-1 9:-1 
-0.4352928893729395 -1.627352980983208 -0.6548932127268059 -0.4843366085635816 1.347841178199028 1:-1 2:1 3:-1 4:-0.968847 5:1 6:-1 7:-0.773234 8:-1 9:-1 
-1.330848952546549 -2.446672760859236 -1.404064675081866 -0 -0 1:-0.985954 2:-0.109774 3:0.42539 4:-0.0529595 5:0.0714274 6:-0.433172 7:-1 8:-0.244444 9:-1 
-0.1169013262823283 -0 -0 -0.9903605957552302 -0 1:-0.365227 2:0.0796994 3:0.452116 4:0.202492 5:-0.485714 6:-0.529791 7:-0.933085 8:0.0349206 9:-1 
-5 -5 -5 -2.038707239605336 -4.565414409928418 1:0.0535554 2:-0.184962 3:0.487751 4:-0.41433 5:-0.082144 6:-0.806763 7:-0.36803 8:-1 9:-1 
-1.20311315533753 -5 -1.546448392075649 -1.297636247909536 -2.359931626338259 1:-0.00614364 2:0.242105 3:-0.0200445 4:0.102804 5:-0.839284 6:-0.755233 7:-0.195167 8:-1 9:-1 
-0.2863171769631411 -0 -0 -0 -0 1:0.0974609 2:0.521805 3:-0.184855 4:-0.364486 5:-0.778571 6:-0.900161 7:-0.408922 8:0.0666666 9:-1 
-3.034159211614633 -4.823922161387006 -1.363001829692076 -2.163810854426281 -5 1:-0.562776 2:-0.0526314 3:-0.207127 4:-0.0654206 5:0.174999 6:-1 7:-0.39777 8:-0.51746 9:-1 
-0 -0.5180412827052362 -0 -1.698546287043034 -0 1:-0.553995 2:0.0436092 3:-1 4:0.557632 5:0.303571 6:-0.987118 7:-0.328996 8:-0.746032 9:-0.647059 
-0 -0 -0 -2.238589574664951 -0 1:-0.612815 2:-0.0556389 3:-1 4:0.401869 5:0.221429 6:-0.954911 7:-0.260223 8:-0.485714 9:-0.960784 
-0 -0 -0 -0 -1.592415250851716 1:-0.462688 2:0.193985 3:-1 4:0.277259 5:0.239285 6:-1 7:-0.345725 8:-0.580952 9:-1 
-0 -0 -0 -0 -2.037057765007937 1:-0.566282 2:0.287218 3:-1 4:0.383178 5:0.157144 6:-0.983897 7:-0.36803 8:-0.663492 9:-1 
-0.4517344367939642 -1.851184138846536 -0.2687436469693198 -3.786453773090492 -1.046310891074598 1:-0.527652 2:-0.633083 3:-1 4:-0.439252 5:0.917856 6:-0.130435 7:-0.349442 8:-1 9:-1 
-0 -0.04261550066198563 -0 -0 -0 1:-0.371381 2:0.100752 3:-1 4:-0.0467289 5:0.0892856 6:-0.545894 7:-0.806691 8:0.828571 9:-1 
