svm_type c_svc
kernel_type linear
nr_class 6
total_sv 117
rho -0.884284 -4.32214 -0.285696 -2.92591 -3.2204 -2.01346 -2.17491 -1.10341 -0.713643 3.4125 -0.00111141 0.335497 -2.20245 -1.80961 1.5648
label 2 5 6 7 3 1
probA -0.939906 -1.31734 -1.52728 -0.760831 -0.871683 -0.425801 -0.693824 -1.67735 -2.61585 -0.986578 -1.01236 -1.8322 -1.68373 -2.33066 -0.606725
probB -0.764485 -0.999626 -0.336704 -0.594187 -0.0733699 -0.399092 0.35547 -0.390424 -0.0317992 0.639319 0.903487 1.03992 -0.448434 0.0727868 0.825666
nr_sv 45 6 5 10 12 39
SV
0 0 0 5 5 1:-0.271642 2:-0.287218 3:0.768374 4:-0.439252 5:-0.0607143 6:-0.806763 7:-0.370409 8:-1 9:-1 
0 0 0 0 5 1:-0.430846 2:-0.24812 3:0.576837 4:-0.258567 5:0.0821428 6:-0.819646 7:-0.439664 8:-1 9:-1 
5 0 0 0 5 1:-0.462687 2:-0.392481 3:0.269488 4:-0.283489 5:0.235714 6:-0.816425 7:-0.294858 8:-0.930159 9:-0.137255 
0 0 3.740133073772825 0 5 1:-0.443781 2:-0.380451 3:0.567929 4:-0.221184 5:0.267857 6:-0.78744 7:-0.481637 8:-1 9:-1 
0 0 0 5 5 1:-0.471642 2:-0.193985 3:0.581292 4:-0.401869 5:0.0714286 6:-0.780998 7:-0.439664 8:-1 9:-1 
0 0 0 0 1.120287787912908 1:-0.444776 2:-0.227068 3:0.621381 4:-0.227414 5:-0.0285716 6:-0.79066 7:-0.454355 8:-1 9:0.137255 
0 0 0 0 5 1:-0.527363 2:-0.311278 3:0.594655 4:-0.239875 5:0.182143 6:-0.777778 7:-0.469045 8:-1 9:-1 
0 0 0 0 5 1:-0.499502 2:-0.314286 3:0.55902 4:-0.258567 5:0.0999998 6:-0.806763 7:-0.435467 8:-1 9:-1 
0 0 0 0 5 1:-0.226866 2:-0.178947 3:0.706013 4:-0.395638 5:-0.0214286 6:-0.816425 7:-0.416579 8:-1 9:-0.45098 
2.123371539177308 5 1.6749786934361 0.9596886168336101 0 1:0.101492 2:0.112782 3:-1 4:-0.557632 5:0.0214286 6:-0.967794 7:0.278069 8:-1 9:-0.686275 
0 0 0 5 5 1:-0.450746 2:-0.335338 3:0.608018 4:-0.395638 5:0.0499998 6:-0.819646 7:-0.334732 8:-1 9:-1 
0 0 0 0 5 1:-0.312438 2:-0.317293 3:0.69265 4:-0.507788 5:0.164286 6:-0.819646 7:-0.380902 8:-1 9:-0.529412 
0 0 0 0 5 1:-0.427861 2:-0.218045 3:0.576837 4:-0.17757 5:-0.0250001 6:-0.780998 7:-0.437565 8:-1 9:-1 
0 0 0 0 5 1:-0.246766 2:-0.338346 3:0.630289 4:-0.208723 5:-0.0357144 6:-0.813204 7:-0.345226 8:-1 9:-0.529412 
0 0 0 0 5 1:0.0567164 2:-0.257143 3:0.639198 4:-0.464174 5:0.0499998 6:-0.826087 7:-0.351522 8:-1 9:-1 
0 0 0 0 5 1:-0.524378 2:-0.290226 3:0.599109 4:-0.233645 5:0.175 6:-0.784219 7:-0.496327 8:-1 9:-1 
0 0 0 3.705103731324633 5 1:-0.277612 2:-0.338346 3:0.665924 4:-0.489097 5:-0.117857 6:-0.793881 7:-0.259181 8:-1 9:-0.137255 
0 0 0 5 5 1:-0.274627 2:-0.242105 3:0.674833 4:-0.358255 5:-0.0750001 6:-0.813204 7:-0.372508 8:-1 9:-1 
0 0 0 0 5 1:-0.298507 2:-0.431579 3:0.229398 4:-0.663551 5:0.428571 6:-0.887278 7:-0.162644 8:-1 9:-0.215686 
0 0 0 0 5 1:-0.406965 2:-0.350376 3:0.612472 4:-0.202492 5:0.125 6:-0.803543 7:-0.437565 8:-1 9:-1 
0 0 0 5 5 1:0.288557 2:-0.0676691 3:0.291759 4:-0.451714 5:-0.521429 6:-0.974235 7:0.124869 8:-1 9:-1 
0 0 0 0 5 1:-0.457711 2:-0.320301 3:0.416481 4:-0.41433 5:0.128571 6:-0.813204 7:-0.290661 8:-1 9:-0.0588235 
0 0.04359867923408978 0.1849152879920949 0 5 1:-0.548259 2:-0.245113 3:0.554566 4:-0.264797 5:0.228571 6:-0.877617 7:-0.454355 8:-1 9:-1 
0 0 0 5 5 1:-0.504478 2:-0.0406015 3:0.567929 4:-0.401869 5:0.0964286 6:-0.880837 7:-0.473242 8:-1 9:-0.45098 
5 3.999621006871953 5 0 0 1:-0.707463 2:0.0586467 3:0.376392 4:0.115265 5:-0.117857 6:-0.645733 7:-0.653725 8:-1 9:-1 
0 0 0 0 5 1:-0.472637 2:-0.196992 3:0.554566 4:-0.233645 5:0.0142856 6:-0.784219 7:-0.443861 8:-1 9:-0.607843 
0 0 0 0 5 1:-0.267662 2:-0.257143 3:0.616927 4:-0.514019 5:0.0785713 6:-0.816425 7:-0.374606 8:-0.942857 9:-0.333333 
0 0 0 0 5 1:-0.488557 2:-0.404511 3:0.483296 4:-0.252336 5:0.239286 6:-0.784219 7:-0.410283 8:-1 9:-1 
0 0 0 5 5 1:-0.527363 2:-0.245113 3:0.48775 4:-0.264797 5:0.175 6:-0.874396 7:-0.414481 8:-1 9:-1 
0 0 0 0.8784541620290067 0.7321451932621713 1:0.541294 2:-0.849624 3:-1 4:-0.700934 5:0.214286 6:-1 7:0.941238 8:-1 9:-1 
0 0 0 5 5 1:-0.272637 2:-0.193985 3:0.732739 4:-0.352025 5:-0.0821428 6:-0.835749 7:-0.401889 8:-1 9:-1 
5 0 0 0 0 1:0.353234 2:-0.783459 3:-1 4:-0.00934579 5:-0.15 6:-0.73913 7:0.639035 8:-1 9:0.333333 
0.251724494789897 0 0 0 0 1:-0.527363 2:-0.371428 3:0.567929 4:0.00311537 5:0.0892856 6:-0.777778 7:-0.466946 8:-1 9:-1 
0 4.997591602007713 0 0 0 1:0.0567164 2:-0.0917292 3:-0.550111 4:-0.333333 5:-0.15 6:-0.89372 7:0.198321 8:-1 9:-1 
2.431672034474099 0 1.021340001505219 0 0 1:1 2:-1 3:-1 4:0.127726 5:-1 6:-0.813204 7:0.651626 8:1 9:0.0980393 
0 0 0 5 5 1:-0.492537 2:-0.209023 3:0.594655 4:-0.252336 5:0.0392856 6:-0.855072 7:-0.416579 8:-1 9:-1 
0 0 0 1.301733302151603 5 1:-0.307463 2:-0.218045 3:0.714922 4:-0.401869 5:0.0607143 6:-0.832528 7:-0.435467 8:-1 9:-1 
0 0 0 0 5 1:-0.512438 2:-0.347368 3:0.532294 4:-0.277259 5:0.160714 6:-0.858293 7:-0.403987 8:-1 9:-1 
0 0 0 0 5 1:-0.529353 2:-0.281203 3:0.518931 4:-0.196262 5:0.232143 6:-0.977456 7:-0.378804 8:-1 9:-0.254902 
0 0 0 0 5 1:0.61592 2:-0.912782 3:-1 4:-0.713396 5:0.167857 6:-1 7:1 8:-1 9:-1 
0 0 0 0 5 1:-0.270647 2:-0.124812 3:0.72383 4:-0.389408 5:-0.232143 6:-0.826087 7:-0.393494 8:-1 9:0.254902 
0 0 0 0 5 1:-0.258707 2:-0.209023 3:0.527839 4:-0.28972 5:-0.125 6:-0.835749 7:-0.334732 8:-1 9:-1 
0 0 0 0 5 1:-0.318408 2:-0.103759 3:0.750557 4:-0.221184 5:-0.285714 6:-0.826087 7:-0.416579 8:-1 9:-0.411765 
0 0 0 3.155020187661143 0 1:-0.543284 2:0.242105 3:0.634744 4:-0.0965733 5:-0.264286 6:-0.94847 7:-0.594963 8:-1 9:-0.529412 
0 0 0 5 5 1:-0.305473 2:-0.18797 3:0.772829 4:-0.445483 5:-0.0428571 6:-0.813204 7:-0.429171 8:-1 9:-1 
-5 0 0 1.082628750132822 1.952890778357732 1:0.0308457 2:-0.909774 3:-0.238307 4:-0.208723 5:0.296428 6:-0.813204 7:0.299056 8:-1 9:-1 
-0 1.261436539074619 5 0 0.006579848882382 1:-0.451741 2:-0.359399 3:-1 4:-0.0404985 5:0.453571 6:-0.687601 7:-0.00524666 8:-1 9:-1 
-4.725104074843239 0.5791707635000679 0.8686504781442775 0 0 1:-0.000995104 2:-0.326316 3:-0.853007 4:-0.239875 5:0.278571 6:-0.958132 7:0.225604 8:-1 9:0.0980393 
-4.780869081910509 0 0 0.533306955418194 0.7036618526962576 1:-0.0616914 2:-0.362406 3:-0.282851 4:0.17134 5:-0.153572 6:-0.755233 7:-0.103882 8:-0.847619 9:1 
-2.184366007631343 5 5 0 0 1:-0.125373 2:-0.23609 3:-1 4:-0.0841121 5:0.15 6:-0.848631 7:0.236097 8:-1 9:-1 
-3.116428904056212 0.604171126459773 5 0.5690315747154666 0.3185688929806518 1:-0.602985 2:-0.0135338 3:0.193764 4:1 5:-0.971429 6:-0.458937 7:-0.90766 8:0.396825 9:-1 
-5 -1.433899580323602 5 4.758542724780756 5 1:-0.266667 2:0.0105263 3:-0.0244986 4:-0.146418 5:0.0214286 6:-1 7:-0.18363 8:-1 9:-1 
-2.763540164321652 -1.010878848710858 0 0 0 1:-0.150249 2:0.15188 3:-1 4:-0.831776 5:0.310714 6:-1 7:0.21511 8:-1 9:-1 
-5 -0 5 0 0 1:-0.230846 2:0.281203 3:-0.652561 4:-0.0965733 5:-0.0392859 6:-1 7:-0.0514166 8:-1 9:-1 
-1.277271123792106 -5 1.801505406163435 0 0 1:-0.202985 2:0.0285715 3:-1 4:0.121495 5:0.0464286 6:-1 7:0.143757 8:-1 9:-1 
-0 -0 0 -0 0.02082941572811842 1:-1 2:1 3:-1 4:-0.968847 5:1 6:-1 7:-0.743966 8:-1 9:-1 
-5 -3.637632728081608 -5 5 5 1:0.19403 2:-0.184962 3:0.48775 4:-0.41433 5:-0.0821428 6:-0.806763 7:-0.286464 8:-1 9:-1 
-0 -0.05260708103877102 -0 0 0 1:-0.287562 2:0.100752 3:-1 4:-0.0467289 5:0.0892856 6:-0.545894 7:-0.781742 8:0.828571 9:-1 
-2.634034368487358 -0 -0 0 0 1:-0.494527 2:0.043609 3:-1 4:0.557632 5:0.303571 6:-0.987117 7:-0.242392 8:-0.746032 9:-0.647059 
-0 -5 -0 0 0 1:-0.494527 2:0.025564 3:-1 4:0.613707 5:-1.29187e-07 6:-0.974235 7:-0.213011 8:-0.326984 9:-1 
-0 -0.9012036362112684 -0 0 0 1:-0.280597 2:0.0796993 3:0.452116 4:0.202492 5:-0.485714 6:-0.529791 7:-0.924449 8:0.0349206 9:-1 
-3.329284495980577 -0.3194751850782419 -0 2.200629210607767 1.978194708525628 1:-0.98408 2:-0.109774 3:0.42539 4:-0.0529594 5:0.0714286 6:-0.433172 7:-1 8:-0.244444 9:-1 
-0 -0 -0.6057498494212323 0 0 1:-0.391045 2:0.193985 3:-1 4:0.277259 5:0.239286 6:-1 7:-0.26128 8:-0.580952 9:-1 
-0 -0 -5 0 0 1:-0.508458 2:0.287218 3:-1 4:0.383178 5:0.157143 6:-0.983897 7:-0.286464 8:-0.663492 9:-1 
-0 -5 -0 0 0 1:-0.561194 2:-0.0556392 3:-1 4:0.401869 5:0.221428 6:-0.954911 7:-0.164743 8:-0.485714 9:-0.960784 
-0.6580481922383052 -0.9577318477343876 -1.195755556742203 0.4438653396177849 0.7745522648801171 1:-0.477612 2:0.094737 3:-1 4:0.52648 5:0.0857143 6:-1 7:-0.156348 8:-0.657143 9:-1 
-5 -0.8104240026372006 -0 -0 5 1:-0.452736 2:-0.275188 3:0.536748 4:-0.0841121 5:-0.0464286 6:-0.806763 7:-0.380902 8:-1 9:-0.333333 
-5 -1.374543277629281 -1.19371577538334 -0.4438653396177849 5 1:-0.322388 2:-0.166917 3:0.496659 4:-0.165109 5:-0.239286 6:-0.816425 7:-0.290661 8:-1 9:-0.647059 
-5 -0 -0 -0 5 1:0.00696517 2:0.0796993 3:0.737194 4:-0.663551 5:-0.396429 6:-1 7:-0.147954 8:-1 9:-1 
-5 -0 -0 -0.07601568097113869 5 1:-0.507463 2:-0.190977 3:0.514477 4:-0.420561 5:0.0285714 6:-0.809984 7:-0.393494 8:-1 9:-1 
-5 -0 -0 -2.124613529636629 5 1:-0.471642 2:-0.305263 3:0.514477 4:-0.395638 5:0.142857 6:-0.832528 7:-0.33893 8:-1 9:-1 
-5 -0 -0 -0 5 1:0.000995104 2:-0.00751873 3:0.674833 4:-0.819315 5:-0.292857 6:-0.964573 7:-0.114376 8:-1 9:-1 
-5 -0 -0 -0 5 1:-0.339304 2:-0.124812 3:0.625835 4:-0.775701 5:0.139286 6:-0.980676 7:-0.265477 8:-1 9:-1 
-5 -0 -1.679946120767574 -0 5 1:-0.462687 2:-0.193985 3:0.510022 4:-0.383178 5:0.0107141 6:-0.832528 7:-0.324239 8:-1 9:-1 
-5 -0 -1.884880828629842 -5 5 1:-0.342289 2:-0.157895 3:0.518931 4:-0.233645 5:-0.203572 6:-0.813204 7:-0.294858 8:-1 9:-1 
-5 -0 -0 -0 5 1:-0.507463 2:-0.218045 3:0.572383 4:-0.345794 5:0.0214286 6:-0.819646 7:-0.391396 8:-1 9:-1 
-5 -0 -0 -0 5 1:-0.447761 2:-0.245113 3:0.5902 4:-0.320872 5:0.0321429 6:-0.819646 7:-0.36831 8:-1 9:-0.607843 
-5 -0 -0 -0 5 1:-0.423881 2:-0.359399 3:0.594655 4:-0.364486 5:-1.29187e-07 6:-0.803543 7:-0.294858 8:-1 9:-1 
-5 -0 -0 -0 -0 1:-0.294527 2:-0.356391 3:0.550111 4:-0.376947 5:0.121429 6:-0.806763 7:-0.370409 8:-1 9:-1 
-5 -0 -0 -0 -0 1:-0.355224 2:-0.434586 3:0.599109 4:-0.364486 5:0.242857 6:-0.813204 7:-0.355719 8:-1 9:-1 
-0 -0 -0 -0 -2.862982726280836 1:-0.153234 2:0.215038 3:0.670379 4:-1 5:-0.210714 6:-0.990338 7:-0.250787 8:-1 9:-1 
-5 -0 -0 -0 -0.7983325938036752 1:-0.352239 2:-0.254135 3:0.643652 4:-0.376947 5:-1.29187e-07 6:-0.816425 7:-0.414481 8:-1 9:-1 
-5 -0 -0 -0 -0 1:-0.363184 2:-0.404511 3:0.523386 4:-0.433022 5:0.210714 6:-0.809984 7:-0.326338 8:-1 9:-1 
-5 -0 -0 -0 -0 1:-0.364179 2:-0.2 3:0.630289 4:-0.439252 5:0.0642856 6:-0.816425 7:-0.403987 8:-1 9:-0.568627 
-5 -0 -0 -0 -1.251444729814878 1:-0.355224 2:-0.377444 3:0.630289 4:-0.389408 5:0.142857 6:-0.806763 7:-0.343127 8:-1 9:-1 
-5 -0 -0 -0 -0 1:-0.249751 2:-0.26015 3:0.501114 4:-0.445483 5:0.0392856 6:-0.816425 7:-0.286464 8:-1 9:-0.372549 
-1.754250770253933 -0 -0 -0 -0.8316243856521286 1:0.075622 2:0.0917294 3:0.714922 4:-0.626168 5:-0.446429 6:-0.951691 7:-0.219307 8:-1 9:-1 
-5 -0 -0 -0 -5 1:-0.339304 2:-0.254135 3:0.510022 4:-0.352025 5:0.0535713 6:-0.809984 7:-0.336831 8:-1 9:-1 
-5 -0 -0 -0 -5 1:-0.20796 2:-0.0466165 3:0.66147 4:-0.445483 5:-0.175 6:-0.980676 7:-0.273872 8:-1 9:-1 
-3.053015389619461 -0 -0 -0 -0 1:0.0318408 2:-0.281203 3:0.594655 4:-0.619938 5:-0.146429 6:-0.925926 7:-0.0786989 8:-1 9:-0.372549 
-5 -0 -0 -0 -5 1:-0.900498 2:-0.320301 3:0.545657 4:-0.482866 5:0.132143 6:-0.800322 7:-0.387198 8:-1 9:0.215686 
-5 -1.464229156818839 -0 -0 -0 1:-0.349254 2:-0.482707 3:0.207127 4:-0.376947 5:0.389286 6:-0.819646 7:-0.238195 8:-1 9:-0.0588235 
-5 -0 -0 -0 -0 1:-0.521393 2:-0.380451 3:0.608018 4:-0.17134 5:0.128571 6:-0.793881 7:-0.44596 8:-1 9:0.0196077 
-5 -0 -0 -0 -0 1:-0.357214 2:-0.374436 3:0.576837 4:-0.41433 5:0.225 6:-0.813204 7:-0.378804 8:-1 9:-1 
-5 -0 -0 -0 -0 1:-0.350249 2:-0.449624 3:0.567929 4:-0.28972 5:0.192857 6:-0.816425 7:-0.347324 8:-1 9:-1 
-5 -0 -0 -0 -0 1:-0.397015 2:-0.356391 3:0.550111 4:-0.352025 5:0.153571 6:-0.819646 7:-0.370409 8:-1 9:-1 
-5 -0 -0 -0 -5 1:-0.550249 2:-0.230075 3:0.536748 4:-0.426791 5:0.0464286 6:-0.819646 7:-0.341028 8:-1 9:-1 
-5 -0 -0 -0 -0 1:-0.350249 2:-0.422556 3:0.585746 4:-0.370716 5:0.167857 6:-0.803543 7:-0.315845 8:-1 9:-0.45098 
-5 -0 -0 -0 -0 1:-0.376119 2:-0.23609 3:0.612472 4:-0.4081 5:0.167857 6:-0.822866 7:-0.44596 8:-1 9:-1 
-5 -1.517472216098184 -0.02082941572811875 -3.896482836093779 -0 1:-0.281592 2:-0.275188 3:0.265034 4:-0.383178 5:0.0857143 6:-0.822866 7:-0.236097 8:-1 9:-1 
-5 -0 -0 -0 -0 1:-0.332338 2:-0.398496 3:0.527839 4:-0.439252 5:0.121429 6:-0.800322 7:-0.301154 8:-1 9:0.176471 
-5 -0 -0 -0 -1.512938543189871 1:-0.0208955 2:-0.109774 3:0.599109 4:-0.482866 5:-0.232143 6:-0.971014 7:-0.166842 8:-1 9:-1 
-5 -0 -0 -0 -3.816715272132909 1:-0.383085 2:-0.311278 3:0.576837 4:-0.127726 5:0.0428571 6:-0.826087 7:-0.36831 8:-1 9:-0.72549 
-5 -0 -0 -0 -0 1:-0.343284 2:-0.362406 3:0.550111 4:-0.41433 5:0.128571 6:-0.803543 7:-0.343127 8:-0.942857 9:-0.137255 
-5 -0 -5 -0 -0.8661923504628044 1:-0.310448 2:-0.18797 3:0.278396 4:-0.439252 5:0.0821428 6:-0.822866 7:-0.244491 8:-1 9:-1 
-5 -0 -0 -0 -0 1:-0.334328 2:-0.293233 3:0.554566 4:-0.383178 5:0.0892856 6:-0.806763 7:-0.357817 8:-1 9:-1 
-5 -0 -0 -0 -0 1:-0.363184 2:-0.317293 3:0.603564 4:-0.333333 5:0.135714 6:-0.816425 7:-0.376705 8:-1 9:-0.568627 
-5 -0 -0 -0 -5 1:-0.218906 2:-0.169925 3:0.550111 4:-0.339564 5:-0.235714 6:-0.822866 7:-0.250787 8:-1 9:-1 
-2.045166821301687 -0 -0 -0 -0 1:-0.364179 2:-0.172932 3:0.665924 4:-0.451714 5:0.135714 6:-0.809984 7:-0.454355 8:-1 9:-1 
-5 -0 -0 -2.658617926026277 -5 1:-0.20995 2:-0.0496241 3:0.572383 4:-0.358255 5:-0.285714 6:-0.835749 7:-0.296957 8:-0.930159 9:-1 
-5 -0 -0 -0 -0.3460661094644227 1:-0.193035 2:-0.257143 3:0.483296 4:-0.383178 5:-0.0892858 6:-0.806763 7:-0.221406 8:-1 9:-0.568627 
-5 -0 -0 -0 -0 1:-0.546269 2:-0.401504 3:0.541203 4:-0.208723 5:0.210714 6:-0.784219 7:-0.441763 8:-1 9:-0.0588235 
-5 -0 -0 -0 -5 1:-0.21393 2:-0.136842 3:0.612472 4:-0.489097 5:0.0107141 6:-0.954911 7:-0.301154 8:-1 9:-1 
-5 -0 -0 -0 -0 1:-0.325373 2:-0.254135 3:0.550111 4:-0.302181 5:0.0107141 6:-0.809984 7:-0.370409 8:-1 9:-1 
-5 -0 -0 -0 -5 1:-0.220895 2:-0.142857 3:0.492205 4:-0.41433 5:-0.189286 6:-0.809984 7:-0.269675 8:-1 9:-1 
-5 -0 -0 -1.197646211285689 -2.713703289198475 1:-0.499502 2:-0.157895 3:0.581292 4:-0.221184 5:0.135714 6:-0.874396 7:-0.50682 8:-1 9:-1 
-5 -0 -0 -0 -5 1:-0.38209 2:-0.383459 3:0.612472 4:-0.376947 5:0.0642856 6:-0.809984 7:-0.313746 8:-1 9:-1 
